digraph Tree {
node [shape=box, style="filled, rounded", color="black", fontname=helvetica] ;
edge [fontname=helvetica] ;
0 [label=<time &le; 73.5<br/>gini = 0.426<br/>samples = 224<br/>value = [155, 69]>, fillcolor="#f1b991"] ;
1 [label=<ejection_fraction &le; 27.5<br/>gini = 0.293<br/>samples = 56<br/>value = [10, 46]>, fillcolor="#64b2eb"] ;
0 -> 1 [labeldistance=2.5, labelangle=45, headlabel="True"] ;
2 [label=<gini = 0.0<br/>samples = 19<br/>value = [0, 19]>, fillcolor="#399de5"] ;
1 -> 2 ;
3 [label=<time &le; 49.5<br/>gini = 0.394<br/>samples = 37<br/>value = [10, 27]>, fillcolor="#82c1ef"] ;
1 -> 3 ;
4 [label=<age &le; 54.0<br/>gini = 0.278<br/>samples = 30<br/>value = [5, 25]>, fillcolor="#61b1ea"] ;
3 -> 4 ;
5 [label=<platelets &le; 289000.0<br/>gini = 0.49<br/>samples = 7<br/>value = [3, 4]>, fillcolor="#cee6f8"] ;
4 -> 5 ;
6 [label=<gini = 0.0<br/>samples = 3<br/>value = [0, 3]>, fillcolor="#399de5"] ;
5 -> 6 ;
7 [label=<creatinine_phosphokinase &le; 204.0<br/>gini = 0.375<br/>samples = 4<br/>value = [3, 1]>, fillcolor="#eeab7b"] ;
5 -> 7 ;
8 [label=<gini = 0.0<br/>samples = 3<br/>value = [3, 0]>, fillcolor="#e58139"] ;
7 -> 8 ;
9 [label=<gini = 0.0<br/>samples = 1<br/>value = [0, 1]>, fillcolor="#399de5"] ;
7 -> 9 ;
10 [label=<creatinine_phosphokinase &le; 1755.5<br/>gini = 0.159<br/>samples = 23<br/>value = [2, 21]>, fillcolor="#4ca6e7"] ;
4 -> 10 ;
11 [label=<ejection_fraction &le; 47.5<br/>gini = 0.091<br/>samples = 21<br/>value = [1, 20]>, fillcolor="#43a2e6"] ;
10 -> 11 ;
12 [label=<gini = 0.0<br/>samples = 16<br/>value = [0, 16]>, fillcolor="#399de5"] ;
11 -> 12 ;
13 [label=<anaemia &le; 0.5<br/>gini = 0.32<br/>samples = 5<br/>value = [1, 4]>, fillcolor="#6ab6ec"] ;
11 -> 13 ;
14 [label=<gini = 0.0<br/>samples = 1<br/>value = [1, 0]>, fillcolor="#e58139"] ;
13 -> 14 ;
15 [label=<gini = 0.0<br/>samples = 4<br/>value = [0, 4]>, fillcolor="#399de5"] ;
13 -> 15 ;
16 [label=<age &le; 57.5<br/>gini = 0.5<br/>samples = 2<br/>value = [1, 1]>, fillcolor="#ffffff"] ;
10 -> 16 ;
17 [label=<gini = 0.0<br/>samples = 1<br/>value = [0, 1]>, fillcolor="#399de5"] ;
16 -> 17 ;
18 [label=<gini = 0.0<br/>samples = 1<br/>value = [1, 0]>, fillcolor="#e58139"] ;
16 -> 18 ;
19 [label=<serum_sodium &le; 135.0<br/>gini = 0.408<br/>samples = 7<br/>value = [5, 2]>, fillcolor="#efb388"] ;
3 -> 19 ;
20 [label=<gini = 0.0<br/>samples = 2<br/>value = [0, 2]>, fillcolor="#399de5"] ;
19 -> 20 ;
21 [label=<gini = 0.0<br/>samples = 5<br/>value = [5, 0]>, fillcolor="#e58139"] ;
19 -> 21 ;
22 [label=<serum_creatinine &le; 1.45<br/>gini = 0.236<br/>samples = 168<br/>value = [145, 23]>, fillcolor="#e99558"] ;
0 -> 22 [labeldistance=2.5, labelangle=-45, headlabel="False"] ;
23 [label=<age &le; 79.0<br/>gini = 0.138<br/>samples = 134<br/>value = [124, 10]>, fillcolor="#e78b49"] ;
22 -> 23 ;
24 [label=<creatinine_phosphokinase &le; 2307.5<br/>gini = 0.103<br/>samples = 128<br/>value = [121, 7]>, fillcolor="#e78844"] ;
23 -> 24 ;
25 [label=<ejection_fraction &le; 27.5<br/>gini = 0.079<br/>samples = 122<br/>value = [117, 5]>, fillcolor="#e68641"] ;
24 -> 25 ;
26 [label=<platelets &le; 227000.0<br/>gini = 0.355<br/>samples = 13<br/>value = [10, 3]>, fillcolor="#eda774"] ;
25 -> 26 ;
27 [label=<diabetes &le; 0.5<br/>gini = 0.444<br/>samples = 3<br/>value = [1, 2]>, fillcolor="#9ccef2"] ;
26 -> 27 ;
28 [label=<gini = 0.0<br/>samples = 1<br/>value = [1, 0]>, fillcolor="#e58139"] ;
27 -> 28 ;
29 [label=<gini = 0.0<br/>samples = 2<br/>value = [0, 2]>, fillcolor="#399de5"] ;
27 -> 29 ;
30 [label=<time &le; 80.5<br/>gini = 0.18<br/>samples = 10<br/>value = [9, 1]>, fillcolor="#e88f4f"] ;
26 -> 30 ;
31 [label=<gini = 0.0<br/>samples = 1<br/>value = [0, 1]>, fillcolor="#399de5"] ;
30 -> 31 ;
32 [label=<gini = 0.0<br/>samples = 9<br/>value = [9, 0]>, fillcolor="#e58139"] ;
30 -> 32 ;
33 [label=<serum_creatinine &le; 0.65<br/>gini = 0.036<br/>samples = 109<br/>value = [107, 2]>, fillcolor="#e5833d"] ;
25 -> 33 ;
34 [label=<platelets &le; 218000.0<br/>gini = 0.5<br/>samples = 2<br/>value = [1, 1]>, fillcolor="#ffffff"] ;
33 -> 34 ;
35 [label=<gini = 0.0<br/>samples = 1<br/>value = [0, 1]>, fillcolor="#399de5"] ;
34 -> 35 ;
36 [label=<gini = 0.0<br/>samples = 1<br/>value = [1, 0]>, fillcolor="#e58139"] ;
34 -> 36 ;
37 [label=<serum_creatinine &le; 1.25<br/>gini = 0.019<br/>samples = 107<br/>value = [106, 1]>, fillcolor="#e5823b"] ;
33 -> 37 ;
38 [label=<gini = 0.0<br/>samples = 96<br/>value = [96, 0]>, fillcolor="#e58139"] ;
37 -> 38 ;
39 [label=<time &le; 93.5<br/>gini = 0.165<br/>samples = 11<br/>value = [10, 1]>, fillcolor="#e88e4d"] ;
37 -> 39 ;
40 [label=<time &le; 89.0<br/>gini = 0.5<br/>samples = 2<br/>value = [1, 1]>, fillcolor="#ffffff"] ;
39 -> 40 ;
41 [label=<gini = 0.0<br/>samples = 1<br/>value = [1, 0]>, fillcolor="#e58139"] ;
40 -> 41 ;
42 [label=<gini = 0.0<br/>samples = 1<br/>value = [0, 1]>, fillcolor="#399de5"] ;
40 -> 42 ;
43 [label=<gini = 0.0<br/>samples = 9<br/>value = [9, 0]>, fillcolor="#e58139"] ;
39 -> 43 ;
44 [label=<time &le; 137.5<br/>gini = 0.444<br/>samples = 6<br/>value = [4, 2]>, fillcolor="#f2c09c"] ;
24 -> 44 ;
45 [label=<gini = 0.0<br/>samples = 2<br/>value = [0, 2]>, fillcolor="#399de5"] ;
44 -> 45 ;
46 [label=<gini = 0.0<br/>samples = 4<br/>value = [4, 0]>, fillcolor="#e58139"] ;
44 -> 46 ;
47 [label=<creatinine_phosphokinase &le; 851.5<br/>gini = 0.5<br/>samples = 6<br/>value = [3, 3]>, fillcolor="#ffffff"] ;
23 -> 47 ;
48 [label=<serum_creatinine &le; 1.0<br/>gini = 0.375<br/>samples = 4<br/>value = [1, 3]>, fillcolor="#7bbeee"] ;
47 -> 48 ;
49 [label=<gini = 0.0<br/>samples = 1<br/>value = [1, 0]>, fillcolor="#e58139"] ;
48 -> 49 ;
50 [label=<gini = 0.0<br/>samples = 3<br/>value = [0, 3]>, fillcolor="#399de5"] ;
48 -> 50 ;
51 [label=<gini = 0.0<br/>samples = 2<br/>value = [2, 0]>, fillcolor="#e58139"] ;
47 -> 51 ;
52 [label=<ejection_fraction &le; 32.5<br/>gini = 0.472<br/>samples = 34<br/>value = [21, 13]>, fillcolor="#f5cfb4"] ;
22 -> 52 ;
53 [label=<sex &le; 0.5<br/>gini = 0.484<br/>samples = 17<br/>value = [7, 10]>, fillcolor="#c4e2f7"] ;
52 -> 53 ;
54 [label=<gini = 0.0<br/>samples = 5<br/>value = [0, 5]>, fillcolor="#399de5"] ;
53 -> 54 ;
55 [label=<ejection_fraction &le; 22.5<br/>gini = 0.486<br/>samples = 12<br/>value = [7, 5]>, fillcolor="#f8dbc6"] ;
53 -> 55 ;
56 [label=<gini = 0.0<br/>samples = 2<br/>value = [0, 2]>, fillcolor="#399de5"] ;
55 -> 56 ;
57 [label=<anaemia &le; 0.5<br/>gini = 0.42<br/>samples = 10<br/>value = [7, 3]>, fillcolor="#f0b78e"] ;
55 -> 57 ;
58 [label=<gini = 0.0<br/>samples = 5<br/>value = [5, 0]>, fillcolor="#e58139"] ;
57 -> 58 ;
59 [label=<creatinine_phosphokinase &le; 192.5<br/>gini = 0.48<br/>samples = 5<br/>value = [2, 3]>, fillcolor="#bddef6"] ;
57 -> 59 ;
60 [label=<gini = 0.0<br/>samples = 2<br/>value = [0, 2]>, fillcolor="#399de5"] ;
59 -> 60 ;
61 [label=<ejection_fraction &le; 27.5<br/>gini = 0.444<br/>samples = 3<br/>value = [2, 1]>, fillcolor="#f2c09c"] ;
59 -> 61 ;
62 [label=<gini = 0.0<br/>samples = 2<br/>value = [2, 0]>, fillcolor="#e58139"] ;
61 -> 62 ;
63 [label=<gini = 0.0<br/>samples = 1<br/>value = [0, 1]>, fillcolor="#399de5"] ;
61 -> 63 ;
64 [label=<age &le; 72.5<br/>gini = 0.291<br/>samples = 17<br/>value = [14, 3]>, fillcolor="#eb9c63"] ;
52 -> 64 ;
65 [label=<gini = 0.0<br/>samples = 12<br/>value = [12, 0]>, fillcolor="#e58139"] ;
64 -> 65 ;
66 [label=<ejection_fraction &le; 47.5<br/>gini = 0.48<br/>samples = 5<br/>value = [2, 3]>, fillcolor="#bddef6"] ;
64 -> 66 ;
67 [label=<gini = 0.0<br/>samples = 3<br/>value = [0, 3]>, fillcolor="#399de5"] ;
66 -> 67 ;
68 [label=<gini = 0.0<br/>samples = 2<br/>value = [2, 0]>, fillcolor="#e58139"] ;
66 -> 68 ;
}